<?xml version="1.0"?>
<opencv_storage>
<cascade>
  <stageType>BOOST</stageType>
  <featureType>HAAR</featureType>
  <height>24</height>
  <width>24</width>
  <stageParams>
    <boostType>GAB</boostType>
    <minHitRate>9.9500000476837158e-001</minHitRate>
    <maxFalseAlarm>5.0000000000000000e-001</maxFalseAlarm>
    <weightTrimRate>9.4999999999999996e-001</weightTrimRate>
    <maxDepth>1</maxDepth>
    <maxWeakCount>100</maxWeakCount></stageParams>
  <featureParams>
    <maxCatCount>0</maxCatCount>
    <featSize>1</featSize>
    <mode>BASIC</mode></featureParams>
  <stageNum>10</stageNum>
  <stages>
    <!-- stage 0 -->
    <_>
      <maxWeakCount>1</maxWeakCount>
      <stageThreshold>3.3333334326744080e-001</stageThreshold>
      <weakClassifiers>
        <_>
          <internalNodes>
            0 -1 9 2.1556483116000891e-003</internalNodes>
          <leafValues>
            3.3333334326744080e-001 -1.</leafValues></_></weakClassifiers></_>
    <!-- stage 1 -->
    <_>
      <maxWeakCount>3</maxWeakCount>
      <stageThreshold>-2.5541350245475769e-001</stageThreshold>
      <weakClassifiers>
        <_>
          <internalNodes>
            0 -1 5 9.0703763999044895e-004</internalNodes>
          <leafValues>
            -2.6182964444160461e-001 1.</leafValues></_>
        <_>
          <internalNodes>
            0 -1 5 9.0703763999044895e-004</internalNodes>
          <leafValues>
            -6.2419818714261055e-003 1.</leafValues></_>
        <_>
          <internalNodes>
            0 -1 0 2.0892403554171324e-003</internalNodes>
          <leafValues>
            1.2658147141337395e-002 -1.</leafValues></_></weakClassifiers></_>
    <!-- stage 2 -->
    <_>
      <maxWeakCount>2</maxWeakCount>
      <stageThreshold>-2.6807162165641785e-001</stageThreshold>
      <weakClassifiers>
        <_>
          <internalNodes>
            0 -1 5 9.0703763999044895e-004</internalNodes>
          <leafValues>
            -2.6182964444160461e-001 1.</leafValues></_>
        <_>
          <internalNodes>
            0 -1 5 9.0703763999044895e-004</internalNodes>
          <leafValues>
            -6.2419818714261055e-003 1.</leafValues></_></weakClassifiers></_>
    <!-- stage 3 -->
    <_>
      <maxWeakCount>4</maxWeakCount>
      <stageThreshold>-2.5541281700134277e-001</stageThreshold>
      <weakClassifiers>
        <_>
          <internalNodes>
            0 -1 6 9.6016414463520050e-003</internalNodes>
          <leafValues>
            -2.6182964444160461e-001 1.</leafValues></_>
        <_>
          <internalNodes>
            0 -1 6 9.6016414463520050e-003</internalNodes>
          <leafValues>
            -6.2419818714261055e-003 1.</leafValues></_>
        <_>
          <internalNodes>
            0 -1 2 3.0819603707641363e-003</internalNodes>
          <leafValues>
            1.2658147141337395e-002 -1.</leafValues></_>
        <_>
          <internalNodes>
            0 -1 2 3.5850349813699722e-003</internalNodes>
          <leafValues>
            6.7613103738040081e-007 1.</leafValues></_></weakClassifiers></_>
    <!-- stage 4 -->
    <_>
      <maxWeakCount>2</maxWeakCount>
      <stageThreshold>-2.6807162165641785e-001</stageThreshold>
      <weakClassifiers>
        <_>
          <internalNodes>
            0 -1 5 9.0703763999044895e-004</internalNodes>
          <leafValues>
            -2.6182964444160461e-001 1.</leafValues></_>
        <_>
          <internalNodes>
            0 -1 5 9.0703763999044895e-004</internalNodes>
          <leafValues>
            -6.2419818714261055e-003 1.</leafValues></_></weakClassifiers></_>
    <!-- stage 5 -->
    <_>
      <maxWeakCount>2</maxWeakCount>
      <stageThreshold>-2.6807162165641785e-001</stageThreshold>
      <weakClassifiers>
        <_>
          <internalNodes>
            0 -1 5 9.0703763999044895e-004</internalNodes>
          <leafValues>
            -2.6182964444160461e-001 1.</leafValues></_>
        <_>
          <internalNodes>
            0 -1 5 9.0703763999044895e-004</internalNodes>
          <leafValues>
            -6.2419818714261055e-003 1.</leafValues></_></weakClassifiers></_>
    <!-- stage 6 -->
    <_>
      <maxWeakCount>100</maxWeakCount>
      <stageThreshold>-2.3713400959968567e-001</stageThreshold>
      <weakClassifiers>
        <_>
          <internalNodes>
            0 -1 7 1.5711771324276924e-002</internalNodes>
          <leafValues>
            -2.6182964444160461e-001 1.</leafValues></_>
        <_>
          <internalNodes>
            0 -1 7 1.5711771324276924e-002</internalNodes>
          <leafValues>
            -6.2419818714261055e-003 1.</leafValues></_>
        <_>
          <internalNodes>
            0 -1 4 2.9198855627328157e-003</internalNodes>
          <leafValues>
            3.0927754938602448e-002 -1.</leafValues></_>
        <_>
          <internalNodes>
            0 -1 3 2.5543787050992250e-003</internalNodes>
          <leafValues>
            9.8667296697385609e-006 1.</leafValues></_>
        <_>
          <internalNodes>
            0 -1 3 2.2688866592943668e-003</internalNodes>
          <leafValues>
            -7.7540969411904882e-016 -1.</leafValues></_>
        <_>
          <internalNodes>
            0 -1 3 2.5543787050992250e-003</internalNodes>
          <leafValues>
            -1.4130074453571782e-015 1.</leafValues></_>
        <_>
          <internalNodes>
            0 -1 3 2.2688866592943668e-003</internalNodes>
          <leafValues>
            4.7587420589907496e-015 -1.</leafValues></_>
        <_>
          <internalNodes>
            0 -1 3 2.5543787050992250e-003</internalNodes>
          <leafValues>
            -4.1974916753929458e-015 1.</leafValues></_>
        <_>
          <internalNodes>
            0 -1 3 2.2688866592943668e-003</internalNodes>
          <leafValues>
            4.3493180960235429e-015 -1.</leafValues></_>
        <_>
          <internalNodes>
            0 -1 3 2.5543787050992250e-003</internalNodes>
          <leafValues>
            -4.3781015461206649e-015 1.</leafValues></_>
        <_>
          <internalNodes>
            0 -1 3 2.2688866592943668e-003</internalNodes>
          <leafValues>
            4.4537534467717355e-015 -1.</leafValues></_>
        <_>
          <internalNodes>
            0 -1 3 2.5543787050992250e-003</internalNodes>
          <leafValues>
            -4.6166615994512605e-015 1.</leafValues></_>
        <_>
          <internalNodes>
            0 -1 3 2.2688866592943668e-003</internalNodes>
          <leafValues>
            4.5517195833852733e-015 -1.</leafValues></_>
        <_>
          <internalNodes>
            0 -1 3 2.5543787050992250e-003</internalNodes>
          <leafValues>
            -4.6127982821788337e-015 1.</leafValues></_>
        <_>
          <internalNodes>
            0 -1 3 2.2688866592943668e-003</internalNodes>
          <leafValues>
            4.5628102092801475e-015 -1.</leafValues></_>
        <_>
          <internalNodes>
            0 -1 3 2.5543787050992250e-003</internalNodes>
          <leafValues>
            -4.2100476682865699e-015 1.</leafValues></_>
        <_>
          <internalNodes>
            0 -1 3 2.2688866592943668e-003</internalNodes>
          <leafValues>
            4.3151225289099395e-015 -1.</leafValues></_>
        <_>
          <internalNodes>
            0 -1 3 2.5543787050992250e-003</internalNodes>
          <leafValues>
            -4.2071499685740130e-015 1.</leafValues></_>
        <_>
          <internalNodes>
            0 -1 3 2.2688866592943668e-003</internalNodes>
          <leafValues>
            4.3151225289099395e-015 -1.</leafValues></_>
        <_>
          <internalNodes>
            0 -1 3 2.5543787050992250e-003</internalNodes>
          <leafValues>
            -4.2071499685740130e-015 1.</leafValues></_>
        <_>
          <internalNodes>
            0 -1 3 2.2688866592943668e-003</internalNodes>
          <leafValues>
            4.3151225289099395e-015 -1.</leafValues></_>
        <_>
          <internalNodes>
            0 -1 3 2.5543787050992250e-003</internalNodes>
          <leafValues>
            -4.2071499685740130e-015 1.</leafValues></_>
        <_>
          <internalNodes>
            0 -1 3 2.2688866592943668e-003</internalNodes>
          <leafValues>
            4.3178952912627765e-015 -1.</leafValues></_>
        <_>
          <internalNodes>
            0 -1 3 2.5543787050992250e-003</internalNodes>
          <leafValues>
            -4.2602707928281192e-015 1.</leafValues></_>
        <_>
          <internalNodes>
            0 -1 3 2.2688866592943668e-003</internalNodes>
          <leafValues>
            4.3262131548048137e-015 -1.</leafValues></_>
        <_>
          <internalNodes>
            0 -1 3 2.5543787050992250e-003</internalNodes>
          <leafValues>
            -4.2593047517517756e-015 1.</leafValues></_>
        <_>
          <internalNodes>
            0 -1 3 2.2688866592943668e-003</internalNodes>
          <leafValues>
            4.2901689382838278e-015 -1.</leafValues></_>
        <_>
          <internalNodes>
            0 -1 3 2.5543787050992250e-003</internalNodes>
          <leafValues>
            -4.2312959132849177e-015 1.</leafValues></_>
        <_>
          <internalNodes>
            0 -1 3 2.2688866592943668e-003</internalNodes>
          <leafValues>
            4.2319438934895672e-015 -1.</leafValues></_>
        <_>
          <internalNodes>
            0 -1 3 2.5543787050992250e-003</internalNodes>
          <leafValues>
            -4.2593047517517756e-015 1.</leafValues></_>
        <_>
          <internalNodes>
            0 -1 3 2.2688866592943668e-003</internalNodes>
          <leafValues>
            4.2310197805441128e-015 -1.</leafValues></_>
        <_>
          <internalNodes>
            0 -1 3 2.5543787050992250e-003</internalNodes>
          <leafValues>
            -4.2602707928281192e-015 1.</leafValues></_>
        <_>
          <internalNodes>
            0 -1 3 2.2688866592943668e-003</internalNodes>
          <leafValues>
            4.2079144158089100e-015 -1.</leafValues></_>
        <_>
          <internalNodes>
            0 -1 3 2.5543787050992250e-003</internalNodes>
          <leafValues>
            -4.2689630449328428e-015 1.</leafValues></_>
        <_>
          <internalNodes>
            0 -1 3 2.2688866592943668e-003</internalNodes>
          <leafValues>
            4.1995965522668727e-015 -1.</leafValues></_>
        <_>
          <internalNodes>
            0 -1 3 2.5543787050992250e-003</internalNodes>
          <leafValues>
            -4.2718607446453997e-015 1.</leafValues></_>
        <_>
          <internalNodes>
            0 -1 3 2.2688866592943668e-003</internalNodes>
          <leafValues>
            4.1968242134305094e-015 -1.</leafValues></_>
        <_>
          <internalNodes>
            0 -1 3 2.5543787050992250e-003</internalNodes>
          <leafValues>
            -4.6746109350211899e-015 1.</leafValues></_>
        <_>
          <internalNodes>
            0 -1 3 2.2688866592943668e-003</internalNodes>
          <leafValues>
            4.3262131548048137e-015 -1.</leafValues></_>
        <_>
          <internalNodes>
            0 -1 3 2.5543787050992250e-003</internalNodes>
          <leafValues>
            -4.2593047517517756e-015 1.</leafValues></_>
        <_>
          <internalNodes>
            0 -1 3 2.2688866592943668e-003</internalNodes>
          <leafValues>
            4.2901689382838278e-015 -1.</leafValues></_>
        <_>
          <internalNodes>
            0 -1 3 2.5543787050992250e-003</internalNodes>
          <leafValues>
            -4.2312959132849177e-015 1.</leafValues></_>
        <_>
          <internalNodes>
            0 -1 3 2.2688866592943668e-003</internalNodes>
          <leafValues>
            4.2319438934895672e-015 -1.</leafValues></_>
        <_>
          <internalNodes>
            0 -1 3 2.5543787050992250e-003</internalNodes>
          <leafValues>
            -4.2312959132849177e-015 1.</leafValues></_>
        <_>
          <internalNodes>
            0 -1 3 2.2688866592943668e-003</internalNodes>
          <leafValues>
            4.2319438934895672e-015 -1.</leafValues></_>
        <_>
          <internalNodes>
            0 -1 3 2.5543787050992250e-003</internalNodes>
          <leafValues>
            -4.2312959132849177e-015 1.</leafValues></_>
        <_>
          <internalNodes>
            0 -1 3 2.2688866592943668e-003</internalNodes>
          <leafValues>
            4.2319438934895672e-015 -1.</leafValues></_>
        <_>
          <internalNodes>
            0 -1 3 2.5543787050992250e-003</internalNodes>
          <leafValues>
            -4.2312959132849177e-015 1.</leafValues></_>
        <_>
          <internalNodes>
            0 -1 3 2.2688866592943668e-003</internalNodes>
          <leafValues>
            4.2319438934895672e-015 -1.</leafValues></_>
        <_>
          <internalNodes>
            0 -1 3 2.5543787050992250e-003</internalNodes>
          <leafValues>
            -4.2312959132849177e-015 1.</leafValues></_>
        <_>
          <internalNodes>
            0 -1 3 2.2688866592943668e-003</internalNodes>
          <leafValues>
            4.2319438934895672e-015 -1.</leafValues></_>
        <_>
          <internalNodes>
            0 -1 3 2.5543787050992250e-003</internalNodes>
          <leafValues>
            -4.2312959132849177e-015 1.</leafValues></_>
        <_>
          <internalNodes>
            0 -1 3 2.2688866592943668e-003</internalNodes>
          <leafValues>
            4.2319438934895672e-015 -1.</leafValues></_>
        <_>
          <internalNodes>
            0 -1 3 2.5543787050992250e-003</internalNodes>
          <leafValues>
            -4.2312959132849177e-015 1.</leafValues></_>
        <_>
          <internalNodes>
            0 -1 3 2.2688866592943668e-003</internalNodes>
          <leafValues>
            4.2319438934895672e-015 -1.</leafValues></_>
        <_>
          <internalNodes>
            0 -1 3 2.5543787050992250e-003</internalNodes>
          <leafValues>
            -4.2312959132849177e-015 1.</leafValues></_>
        <_>
          <internalNodes>
            0 -1 3 2.2688866592943668e-003</internalNodes>
          <leafValues>
            4.2319438934895672e-015 -1.</leafValues></_>
        <_>
          <internalNodes>
            0 -1 3 2.5543787050992250e-003</internalNodes>
          <leafValues>
            -4.2312959132849177e-015 1.</leafValues></_>
        <_>
          <internalNodes>
            0 -1 3 2.2688866592943668e-003</internalNodes>
          <leafValues>
            4.2319438934895672e-015 -1.</leafValues></_>
        <_>
          <internalNodes>
            0 -1 3 2.5543787050992250e-003</internalNodes>
          <leafValues>
            -4.2312959132849177e-015 1.</leafValues></_>
        <_>
          <internalNodes>
            0 -1 3 2.2688866592943668e-003</internalNodes>
          <leafValues>
            4.2319438934895672e-015 -1.</leafValues></_>
        <_>
          <internalNodes>
            0 -1 3 2.5543787050992250e-003</internalNodes>
          <leafValues>
            -4.2312959132849177e-015 1.</leafValues></_>
        <_>
          <internalNodes>
            0 -1 3 2.2688866592943668e-003</internalNodes>
          <leafValues>
            4.2319438934895672e-015 -1.</leafValues></_>
        <_>
          <internalNodes>
            0 -1 3 2.5543787050992250e-003</internalNodes>
          <leafValues>
            -4.2312959132849177e-015 1.</leafValues></_>
        <_>
          <internalNodes>
            0 -1 3 2.2688866592943668e-003</internalNodes>
          <leafValues>
            4.2319438934895672e-015 -1.</leafValues></_>
        <_>
          <internalNodes>
            0 -1 3 2.5543787050992250e-003</internalNodes>
          <leafValues>
            -4.2312959132849177e-015 1.</leafValues></_>
        <_>
          <internalNodes>
            0 -1 3 2.2688866592943668e-003</internalNodes>
          <leafValues>
            4.2319438934895672e-015 -1.</leafValues></_>
        <_>
          <internalNodes>
            0 -1 3 2.5543787050992250e-003</internalNodes>
          <leafValues>
            -4.2312959132849177e-015 1.</leafValues></_>
        <_>
          <internalNodes>
            0 -1 3 2.2688866592943668e-003</internalNodes>
          <leafValues>
            4.2319438934895672e-015 -1.</leafValues></_>
        <_>
          <internalNodes>
            0 -1 3 2.5543787050992250e-003</internalNodes>
          <leafValues>
            -4.2312959132849177e-015 1.</leafValues></_>
        <_>
          <internalNodes>
            0 -1 3 2.2688866592943668e-003</internalNodes>
          <leafValues>
            4.2319438934895672e-015 -1.</leafValues></_>
        <_>
          <internalNodes>
            0 -1 3 2.5543787050992250e-003</internalNodes>
          <leafValues>
            -4.2312959132849177e-015 1.</leafValues></_>
        <_>
          <internalNodes>
            0 -1 3 2.2688866592943668e-003</internalNodes>
          <leafValues>
            4.2319438934895672e-015 -1.</leafValues></_>
        <_>
          <internalNodes>
            0 -1 3 2.5543787050992250e-003</internalNodes>
          <leafValues>
            -4.2312959132849177e-015 1.</leafValues></_>
        <_>
          <internalNodes>
            0 -1 3 2.2688866592943668e-003</internalNodes>
          <leafValues>
            4.2319438934895672e-015 -1.</leafValues></_>
        <_>
          <internalNodes>
            0 -1 3 2.5543787050992250e-003</internalNodes>
          <leafValues>
            -4.2409542064659848e-015 1.</leafValues></_>
        <_>
          <internalNodes>
            0 -1 3 2.2688866592943668e-003</internalNodes>
          <leafValues>
            4.5554164586835647e-015 -1.</leafValues></_>
        <_>
          <internalNodes>
            0 -1 3 2.5543787050992250e-003</internalNodes>
          <leafValues>
            -4.3829309044694353e-015 1.</leafValues></_>
        <_>
          <internalNodes>
            0 -1 3 2.2688866592943668e-003</internalNodes>
          <leafValues>
            4.2319438934895672e-015 -1.</leafValues></_>
        <_>
          <internalNodes>
            0 -1 3 2.5543787050992250e-003</internalNodes>
          <leafValues>
            -4.5007620812784546e-015 1.</leafValues></_>
        <_>
          <internalNodes>
            0 -1 3 2.2688866592943668e-003</internalNodes>
          <leafValues>
            1.3641295150149872e-015 -1.</leafValues></_>
        <_>
          <internalNodes>
            0 -1 3 2.5543787050992250e-003</internalNodes>
          <leafValues>
            -1.8466645974288569e-015 1.</leafValues></_>
        <_>
          <internalNodes>
            0 -1 3 2.2688866592943668e-003</internalNodes>
          <leafValues>
            4.5988540022846598e-015 -1.</leafValues></_>
        <_>
          <internalNodes>
            0 -1 3 2.5543787050992250e-003</internalNodes>
          <leafValues>
            -4.2409542064659848e-015 1.</leafValues></_>
        <_>
          <internalNodes>
            0 -1 3 2.2688866592943668e-003</internalNodes>
          <leafValues>
            4.5554164586835647e-015 -1.</leafValues></_>
        <_>
          <internalNodes>
            0 -1 3 2.5543787050992250e-003</internalNodes>
          <leafValues>
            -4.5596774579247275e-015 1.</leafValues></_>
        <_>
          <internalNodes>
            0 -1 3 2.2688866592943668e-003</internalNodes>
          <leafValues>
            1.3724473785570244e-015 -1.</leafValues></_>
        <_>
          <internalNodes>
            0 -1 3 2.5543787050992250e-003</internalNodes>
          <leafValues>
            -1.8466645974288569e-015 1.</leafValues></_>
        <_>
          <internalNodes>
            0 -1 3 2.2688866592943668e-003</internalNodes>
          <leafValues>
            1.4047947197797189e-015 -1.</leafValues></_>
        <_>
          <internalNodes>
            0 -1 3 2.5543787050992250e-003</internalNodes>
          <leafValues>
            -1.7751932278889599e-015 1.</leafValues></_>
        <_>
          <internalNodes>
            0 -1 3 2.2688866592943668e-003</internalNodes>
          <leafValues>
            1.5406530870469147e-015 -1.</leafValues></_>
        <_>
          <internalNodes>
            0 -1 3 2.5543787050992250e-003</internalNodes>
          <leafValues>
            -1.7433208603914382e-015 1.</leafValues></_>
        <_>
          <internalNodes>
            0 -1 3 2.2688866592943668e-003</internalNodes>
          <leafValues>
            4.7698322613691502e-015 -1.</leafValues></_>
        <_>
          <internalNodes>
            0 -1 3 2.5543787050992250e-003</internalNodes>
          <leafValues>
            -2.7960741818530482e-015 1.</leafValues></_>
        <_>
          <internalNodes>
            0 -1 3 2.2688866592943668e-003</internalNodes>
          <leafValues>
            1.2430584371827202e-015 -1.</leafValues></_>
        <_>
          <internalNodes>
            0 -1 3 2.5543787050992250e-003</internalNodes>
          <leafValues>
            -1.9905729540685207e-015 1.</leafValues></_>
        <_>
          <internalNodes>
            0 -1 3 2.2688866592943668e-003</internalNodes>
          <leafValues>
            1.1506377193957378e-015 -1.</leafValues></_>
        <_>
          <internalNodes>
            0 -1 3 2.5543787050992250e-003</internalNodes>
          <leafValues>
            -1.8331429869753628e-015 1.</leafValues></_>
        <_>
          <internalNodes>
            0 -1 3 2.2688866592943668e-003</internalNodes>
          <leafValues>
            1.5083058517033386e-015 -1.</leafValues></_>
        <_>
          <internalNodes>
            0 -1 3 2.5543787050992250e-003</internalNodes>
          <leafValues>
            -1.7655349347078927e-015 1.</leafValues></_></weakClassifiers></_>
    <!-- stage 7 -->
    <_>
      <maxWeakCount>2</maxWeakCount>
      <stageThreshold>-2.6807162165641785e-001</stageThreshold>
      <weakClassifiers>
        <_>
          <internalNodes>
            0 -1 5 9.0703763999044895e-004</internalNodes>
          <leafValues>
            -2.6182964444160461e-001 1.</leafValues></_>
        <_>
          <internalNodes>
            0 -1 5 9.0703763999044895e-004</internalNodes>
          <leafValues>
            -6.2419818714261055e-003 1.</leafValues></_></weakClassifiers></_>
    <!-- stage 8 -->
    <_>
      <maxWeakCount>2</maxWeakCount>
      <stageThreshold>-2.6807162165641785e-001</stageThreshold>
      <weakClassifiers>
        <_>
          <internalNodes>
            0 -1 5 9.0703763999044895e-004</internalNodes>
          <leafValues>
            -2.6182964444160461e-001 1.</leafValues></_>
        <_>
          <internalNodes>
            0 -1 5 9.0703763999044895e-004</internalNodes>
          <leafValues>
            -6.2419818714261055e-003 1.</leafValues></_></weakClassifiers></_>
    <!-- stage 9 -->
    <_>
      <maxWeakCount>4</maxWeakCount>
      <stageThreshold>-2.6304656267166138e-001</stageThreshold>
      <weakClassifiers>
        <_>
          <internalNodes>
            0 -1 8 2.1181102842092514e-002</internalNodes>
          <leafValues>
            -2.6182964444160461e-001 1.</leafValues></_>
        <_>
          <internalNodes>
            0 -1 8 2.1181102842092514e-002</internalNodes>
          <leafValues>
            -6.2419818714261055e-003 1.</leafValues></_>
        <_>
          <internalNodes>
            0 -1 1 -2.0663980394601822e-003</internalNodes>
          <leafValues>
            -1. 5.0250445492565632e-003</leafValues></_>
        <_>
          <internalNodes>
            0 -1 1 -1.1099386028945446e-003</internalNodes>
          <leafValues>
            1. 4.2296559144006096e-008</leafValues></_></weakClassifiers></_></stages>
  <features>
    <_>
      <rects>
        <_>
          0 0 1 8 -1.</_>
        <_>
          0 4 1 4 2.</_></rects>
      <tilted>0</tilted></_>
    <_>
      <rects>
        <_>
          0 0 1 15 -1.</_>
        <_>
          0 5 1 5 3.</_></rects>
      <tilted>0</tilted></_>
    <_>
      <rects>
        <_>
          0 0 1 14 -1.</_>
        <_>
          0 7 1 7 2.</_></rects>
      <tilted>0</tilted></_>
    <_>
      <rects>
        <_>
          0 0 1 18 -1.</_>
        <_>
          0 9 1 9 2.</_></rects>
      <tilted>0</tilted></_>
    <_>
      <rects>
        <_>
          0 0 3 18 -1.</_>
        <_>
          0 9 3 9 2.</_></rects>
      <tilted>0</tilted></_>
    <_>
      <rects>
        <_>
          0 0 8 12 -1.</_>
        <_>
          4 0 4 12 2.</_></rects>
      <tilted>0</tilted></_>
    <_>
      <rects>
        <_>
          0 0 8 14 -1.</_>
        <_>
          4 0 4 14 2.</_></rects>
      <tilted>0</tilted></_>
    <_>
      <rects>
        <_>
          0 0 8 15 -1.</_>
        <_>
          4 0 4 15 2.</_></rects>
      <tilted>0</tilted></_>
    <_>
      <rects>
        <_>
          0 0 8 16 -1.</_>
        <_>
          4 0 4 16 2.</_></rects>
      <tilted>0</tilted></_>
    <_>
      <rects>
        <_>
          0 18 18 6 -1.</_>
        <_>
          0 21 18 3 2.</_></rects>
      <tilted>0</tilted></_></features></cascade>
</opencv_storage>
