<?xml version="1.0"?>
<opencv_storage>
<stage3>
  <maxWeakCount>100</maxWeakCount>
  <stageThreshold>8.3154189633205533e-004</stageThreshold>
  <weakClassifiers>
    <_>
      <internalNodes>
        0 -1 1699 2.0972171332687140e-003</internalNodes>
      <leafValues>
        6.7314882762730122e-003 6.5370506048202515e-001</leafValues></_>
    <_>
      <internalNodes>
        0 -1 121715 1.7699645832180977e-003</internalNodes>
      <leafValues>
        1.6716420650482178e-001 -6.8778109550476074e-001</leafValues></_>
    <_>
      <internalNodes>
        0 -1 10721 2.1068304777145386e-003</internalNodes>
      <leafValues>
        -1.2277592718601227e-001 6.3388544321060181e-001</leafValues></_>
    <_>
      <internalNodes>
        0 -1 170085 3.9834268391132355e-003</internalNodes>
      <leafValues>
        3.6034833639860153e-002 -5.6874412298202515e-001</leafValues></_>
    <_>
      <internalNodes>
        0 -1 24204 2.8901305049657822e-003</internalNodes>
      <leafValues>
        -3.1563367694616318e-002 6.7173296213150024e-001</leafValues></_>
    <_>
      <internalNodes>
        0 -1 184434 -4.7831377014517784e-003</internalNodes>
      <leafValues>
        9.8343771696090698e-001 -4.4079355895519257e-002</leafValues></_>
    <_>
      <internalNodes>
        0 -1 236013 -4.5894999057054520e-003</internalNodes>
      <leafValues>
        8.4164941310882568e-001 -1.2850560247898102e-002</leafValues></_>
    <_>
      <internalNodes>
        0 -1 198644 7.5935258064419031e-004</internalNodes>
      <leafValues>
        5.5266052484512329e-002 -4.3957677483558655e-001</leafValues></_>
    <_>
      <internalNodes>
        0 -1 28553 1.0707351379096508e-002</internalNodes>
      <leafValues>
        -6.1197414994239807e-002 4.7233942151069641e-001</leafValues></_>
    <_>
      <internalNodes>
        0 -1 163930 5.3372951224446297e-003</internalNodes>
      <leafValues>
        -2.0272308960556984e-002 9.3480360507965088e-001</leafValues></_>
    <_>
      <internalNodes>
        0 -1 344577 -3.8466150872409344e-003</internalNodes>
      <leafValues>
        1. -2.4563369806855917e-003</leafValues></_>
    <_>
      <internalNodes>
        0 -1 335567 2.1428498439490795e-003</internalNodes>
      <leafValues>
        3.1113231554627419e-002 -6.5082007646560669e-001</leafValues></_>
    <_>
      <internalNodes>
        0 -1 352956 -3.6334246397018433e-003</internalNodes>
      <leafValues>
        8.0225652456283569e-001 -2.4328250437974930e-002</leafValues></_>
    <_>
      <internalNodes>
        0 -1 342625 -2.4245432578027248e-003</internalNodes>
      <leafValues>
        -5.6398290395736694e-001 2.7426917105913162e-002</leafValues></_>
    <_>
      <internalNodes>
        0 -1 345037 2.8625656850636005e-003</internalNodes>
      <leafValues>
        -1.1170057579874992e-002 9.2313766479492188e-001</leafValues></_>
    <_>
      <internalNodes>
        0 -1 331182 -1.2043803930282593e-002</internalNodes>
      <leafValues>
        8.4849578142166138e-001 -1.4696634374558926e-002</leafValues></_>
    <_>
      <internalNodes>
        0 -1 366193 8.3260785322636366e-004</internalNodes>
      <leafValues>
        2.7534347027540207e-002 -5.2491009235382080e-001</leafValues></_>
    <_>
      <internalNodes>
        0 -1 3328 3.2615023665130138e-003</internalNodes>
      <leafValues>
        -2.2728776559233665e-002 7.2028958797454834e-001</leafValues></_>
    <_>
      <internalNodes>
        0 -1 177585 1.1907530715689063e-003</internalNodes>
      <leafValues>
        3.0204156413674355e-002 -4.2690929770469666e-001</leafValues></_>
    <_>
      <internalNodes>
        0 -1 47178 -1.8320791423320770e-002</internalNodes>
      <leafValues>
        9.2644721269607544e-001 -8.8253403082489967e-003</leafValues></_>
    <_>
      <internalNodes>
        0 -1 384095 5.3321621380746365e-003</internalNodes>
      <leafValues>
        1.4707314781844616e-002 -7.9927647113800049e-001</leafValues></_>
    <_>
      <internalNodes>
        0 -1 336046 -1.3164290785789490e-001</internalNodes>
      <leafValues>
        -8.4470242261886597e-001 1.2336678802967072e-002</leafValues></_>
    <_>
      <internalNodes>
        0 -1 389118 -3.5741478204727173e-003</internalNodes>
      <leafValues>
        5.0431793928146362e-001 -2.8548689559102058e-002</leafValues></_>
    <_>
      <internalNodes>
        0 -1 323017 -8.1562821287661791e-004</internalNodes>
      <leafValues>
        -7.5622260570526123e-001 9.7235552966594696e-003</leafValues></_>
    <_>
      <internalNodes>
        0 -1 1128 4.2904637753963470e-002</internalNodes>
      <leafValues>
        -1.2172224000096321e-002 6.2422931194305420e-001</leafValues></_>
    <_>
      <internalNodes>
        0 -1 77069 6.9750938564538956e-003</internalNodes>
      <leafValues>
        1.7310665920376778e-002 -6.0658591985702515e-001</leafValues></_>
    <_>
      <internalNodes>
        0 -1 25593 -3.1027398072183132e-003</internalNodes>
      <leafValues>
        7.7757275104522705e-001 -5.2516977302730083e-003</leafValues></_>
    <_>
      <internalNodes>
        0 -1 142072 9.3875499442219734e-003</internalNodes>
      <leafValues>
        -2.0425304770469666e-002 5.9495437145233154e-001</leafValues></_>
    <_>
      <internalNodes>
        0 -1 295231 4.6135978773236275e-003</internalNodes>
      <leafValues>
        1.2264357879757881e-002 -7.1714407205581665e-001</leafValues></_>
    <_>
      <internalNodes>
        0 -1 235065 -1.3395567657426000e-004</internalNodes>
      <leafValues>
        5.4233723878860474e-001 -1.1766397394239902e-002</leafValues></_>
    <_>
      <internalNodes>
        0 -1 259129 -7.9362606629729271e-004</internalNodes>
      <leafValues>
        -6.0191571712493896e-001 1.7629887908697128e-002</leafValues></_>
    <_>
      <internalNodes>
        0 -1 120189 -1.2439725920557976e-002</internalNodes>
      <leafValues>
        1. -6.0483929701149464e-003</leafValues></_>
    <_>
      <internalNodes>
        0 -1 14269 -2.8268873691558838e-001</internalNodes>
      <leafValues>
        -8.1178945302963257e-001 8.4639098495244980e-003</leafValues></_>
    <_>
      <internalNodes>
        0 -1 44475 -1.8165670335292816e-003</internalNodes>
      <leafValues>
        4.6351754665374756e-001 -2.0476825535297394e-002</leafValues></_>
    <_>
      <internalNodes>
        0 -1 360785 3.7852192763239145e-003</internalNodes>
      <leafValues>
        1.4501051045954227e-002 -6.2251257896423340e-001</leafValues></_>
    <_>
      <internalNodes>
        0 -1 368367 5.8218315243721008e-003</internalNodes>
      <leafValues>
        -3.4594989847391844e-003 8.7355673313140869e-001</leafValues></_>
    <_>
      <internalNodes>
        0 -1 365782 -4.0154714952223003e-004</internalNodes>
      <leafValues>
        -9.1681957244873047e-001 7.8714080154895782e-003</leafValues></_>
    <_>
      <internalNodes>
        0 -1 167280 2.5420664314879104e-005</internalNodes>
      <leafValues>
        -8.4937643259763718e-003 7.3052644729614258e-001</leafValues></_>
    <_>
      <internalNodes>
        0 -1 180126 6.3084386056289077e-004</internalNodes>
      <leafValues>
        9.8934452980756760e-003 -7.9755592346191406e-001</leafValues></_>
    <_>
      <internalNodes>
        0 -1 41338 -2.0813046023249626e-002</internalNodes>
      <leafValues>
        5.3664499521255493e-001 -1.3417031615972519e-002</leafValues></_>
    <_>
      <internalNodes>
        0 -1 163927 -1.6040245536714792e-003</internalNodes>
      <leafValues>
        -5.7531499862670898e-001 1.0668119415640831e-002</leafValues></_>
    <_>
      <internalNodes>
        0 -1 25472 1.7913759802468121e-004</internalNodes>
      <leafValues>
        -6.8043530918657780e-003 6.8422740697860718e-001</leafValues></_>
    <_>
      <internalNodes>
        0 -1 319973 5.6656968081369996e-004</internalNodes>
      <leafValues>
        7.8744748607277870e-003 -6.0980576276779175e-001</leafValues></_>
    <_>
      <internalNodes>
        0 -1 2582 -1.1593176750466228e-003</internalNodes>
      <leafValues>
        7.7615648508071899e-001 -6.4877909608185291e-003</leafValues></_>
    <_>
      <internalNodes>
        0 -1 388281 1.5628581168130040e-003</internalNodes>
      <leafValues>
        7.4647958390414715e-003 -5.7520073652267456e-001</leafValues></_>
    <_>
      <internalNodes>
        0 -1 358152 -1.8588874954730272e-003</internalNodes>
      <leafValues>
        8.8520801067352295e-001 -4.5035947114229202e-003</leafValues></_>
    <_>
      <internalNodes>
        0 -1 379565 4.0099001489579678e-003</internalNodes>
      <leafValues>
        -1.1974445544183254e-002 8.6702758073806763e-001</leafValues></_>
    <_>
      <internalNodes>
        0 -1 320384 -1.4021941460669041e-003</internalNodes>
      <leafValues>
        -5.3815501928329468e-001 1.3756489381194115e-002</leafValues></_>
    <_>
      <internalNodes>
        0 -1 1902 -2.6638477575033903e-003</internalNodes>
      <leafValues>
        8.6870962381362915e-001 7.1546313120052218e-004</leafValues></_>
    <_>
      <internalNodes>
        0 -1 298978 -5.9994431212544441e-003</internalNodes>
      <leafValues>
        6.7046231031417847e-001 -9.8543791100382805e-003</leafValues></_>
    <_>
      <internalNodes>
        0 -1 296022 -3.9380565285682678e-003</internalNodes>
      <leafValues>
        -6.0835105180740356e-001 7.1909339167177677e-003</leafValues></_>
    <_>
      <internalNodes>
        0 -1 394160 1.9355532713234425e-003</internalNodes>
      <leafValues>
        -2.6067420840263367e-003 7.1926903724670410e-001</leafValues></_>
    <_>
      <internalNodes>
        0 -1 394682 5.5174960289150476e-004</internalNodes>
      <leafValues>
        3.7600903306156397e-003 -7.5904965400695801e-001</leafValues></_>
    <_>
      <internalNodes>
        0 -1 262698 2.7959933504462242e-004</internalNodes>
      <leafValues>
        -3.3955052495002747e-003 7.4325788021087646e-001</leafValues></_>
    <_>
      <internalNodes>
        0 -1 1600 2.2287368774414063e-003</internalNodes>
      <leafValues>
        4.0799020789563656e-003 -6.5237832069396973e-001</leafValues></_>
    <_>
      <internalNodes>
        0 -1 360895 1.7939702374860644e-003</internalNodes>
      <leafValues>
        -8.7382560595870018e-003 5.6610435247421265e-001</leafValues></_>
    <_>
      <internalNodes>
        0 -1 374366 7.8203761950135231e-004</internalNodes>
      <leafValues>
        2.6058384682983160e-003 -7.7242594957351685e-001</leafValues></_>
    <_>
      <internalNodes>
        0 -1 374363 9.3005126109346747e-004</internalNodes>
      <leafValues>
        -7.3339411756023765e-004 6.8423986434936523e-001</leafValues></_>
    <_>
      <internalNodes>
        0 -1 75127 1.1660413583740592e-003</internalNodes>
      <leafValues>
        4.0181991644203663e-003 -7.3589897155761719e-001</leafValues></_>
    <_>
      <internalNodes>
        0 -1 150930 -1.9090626388788223e-002</internalNodes>
      <leafValues>
        6.2604582309722900e-001 -5.7321465574204922e-003</leafValues></_>
    <_>
      <internalNodes>
        0 -1 356440 -1.6686058370396495e-003</internalNodes>
      <leafValues>
        -9.3786925077438354e-001 3.3051329664885998e-003</leafValues></_>
    <_>
      <internalNodes>
        0 -1 356725 -2.6740483008325100e-004</internalNodes>
      <leafValues>
        8.1100296974182129e-001 1.2417013058438897e-003</leafValues></_>
    <_>
      <internalNodes>
        0 -1 11696 -1.2933547841385007e-003</internalNodes>
      <leafValues>
        -6.6045981645584106e-001 4.1284635663032532e-003</leafValues></_>
    <_>
      <internalNodes>
        0 -1 7459 -5.7171480730175972e-003</internalNodes>
      <leafValues>
        7.4068087339401245e-001 -7.8704138286411762e-004</leafValues></_>
    <_>
      <internalNodes>
        0 -1 240057 -3.2333869603462517e-004</internalNodes>
      <leafValues>
        -8.4674835205078125e-001 -1.9028295064345002e-003</leafValues></_>
    <_>
      <internalNodes>
        0 -1 57570 -2.6566848158836365e-002</internalNodes>
      <leafValues>
        8.1798309087753296e-001 1.1292563285678625e-003</leafValues></_>
    <_>
      <internalNodes>
        0 -1 295700 -4.1849035769701004e-003</internalNodes>
      <leafValues>
        -8.3687442541122437e-001 5.2681460510939360e-004</leafValues></_>
    <_>
      <internalNodes>
        0 -1 237646 -2.8796631842851639e-002</internalNodes>
      <leafValues>
        8.2296711206436157e-001 -4.4626291492022574e-004</leafValues></_>
    <_>
      <internalNodes>
        0 -1 387491 -1.7232412938028574e-003</internalNodes>
      <leafValues>
        -9.2415606975555420e-001 -4.8220541793853045e-004</leafValues></_>
    <_>
      <internalNodes>
        0 -1 27604 5.4369284771382809e-003</internalNodes>
      <leafValues>
        -5.5990349501371384e-003 7.1597594022750854e-001</leafValues></_>
    <_>
      <internalNodes>
        0 -1 359148 2.2665243595838547e-002</internalNodes>
      <leafValues>
        -3.7572483415715396e-004 -8.8404947519302368e-001</leafValues></_>
    <_>
      <internalNodes>
        0 -1 352254 1.0286804288625717e-002</internalNodes>
      <leafValues>
        -6.3969608163461089e-005 8.7199097871780396e-001</leafValues></_>
    <_>
      <internalNodes>
        0 -1 56665 1.0958273895084858e-002</internalNodes>
      <leafValues>
        1.8505197949707508e-003 -7.7515310049057007e-001</leafValues></_>
    <_>
      <internalNodes>
        0 -1 6440 2.0949658006429672e-002</internalNodes>
      <leafValues>
        -1.8403676804155111e-003 7.5227284431457520e-001</leafValues></_>
    <_>
      <internalNodes>
        0 -1 169370 3.7001129239797592e-003</internalNodes>
      <leafValues>
        3.2676837872713804e-004 -8.0363869667053223e-001</leafValues></_>
    <_>
      <internalNodes>
        0 -1 224822 1.2491804081946611e-003</internalNodes>
      <leafValues>
        -4.2000410758191720e-005 8.2708781957626343e-001</leafValues></_>
    <_>
      <internalNodes>
        0 -1 257448 4.6531483530998230e-004</internalNodes>
      <leafValues>
        -2.2757849365007132e-005 -8.7342959642410278e-001</leafValues></_>
    <_>
      <internalNodes>
        0 -1 81895 1.1673707049340010e-003</internalNodes>
      <leafValues>
        2.4103262694552541e-004 8.6238020658493042e-001</leafValues></_>
    <_>
      <internalNodes>
        0 -1 3080 1.8612593412399292e-003</internalNodes>
      <leafValues>
        -9.1585468908306211e-005 -8.8024461269378662e-001</leafValues></_>
    <_>
      <internalNodes>
        0 -1 3333 9.2773477081209421e-004</internalNodes>
      <leafValues>
        -1.5692198940087110e-004 8.7714540958404541e-001</leafValues></_>
    <_>
      <internalNodes>
        0 -1 3172 9.8604371305555105e-004</internalNodes>
      <leafValues>
        -7.4932776624336839e-004 -8.9545232057571411e-001</leafValues></_>
    <_>
      <internalNodes>
        0 -1 3103 1.2770111206918955e-003</internalNodes>
      <leafValues>
        -4.6512224798789248e-005 8.8988596200942993e-001</leafValues></_>
    <_>
      <internalNodes>
        0 -1 9322 1.8612593412399292e-003</internalNodes>
      <leafValues>
        2.7004238290828653e-005 -9.0007519721984863e-001</leafValues></_>
    <_>
      <internalNodes>
        0 -1 9322 1.2770111206918955e-003</internalNodes>
      <leafValues>
        3.6833120975643396e-004 8.8563162088394165e-001</leafValues></_>
    <_>
      <internalNodes>
        0 -1 9322 1.8612593412399292e-003</internalNodes>
      <leafValues>
        -3.6833118065260351e-004 -8.7881940603256226e-001</leafValues></_>
    <_>
      <internalNodes>
        0 -1 9322 1.2770111206918955e-003</internalNodes>
      <leafValues>
        1.8434315279591829e-004 8.8415360450744629e-001</leafValues></_>
    <_>
      <internalNodes>
        0 -1 9322 1.8612593412399292e-003</internalNodes>
      <leafValues>
        -1.8434316734783351e-004 -8.8002818822860718e-001</leafValues></_>
    <_>
      <internalNodes>
        0 -1 9322 1.2770111206918955e-003</internalNodes>
      <leafValues>
        1.8434316734783351e-004 8.8324987888336182e-001</leafValues></_>
    <_>
      <internalNodes>
        0 -1 9322 1.8612593412399292e-003</internalNodes>
      <leafValues>
        -1.8434316734783351e-004 -8.7960010766983032e-001</leafValues></_>
    <_>
      <internalNodes>
        0 -1 9322 1.2770111206918955e-003</internalNodes>
      <leafValues>
        3.6833120975643396e-004 8.8180625438690186e-001</leafValues></_>
    <_>
      <internalNodes>
        0 -1 9322 1.8612593412399292e-003</internalNodes>
      <leafValues>
        -3.6833118065260351e-004 -8.9937388896942139e-001</leafValues></_>
    <_>
      <internalNodes>
        0 -1 9322 1.2770111206918955e-003</internalNodes>
      <leafValues>
        3.6833118065260351e-004 8.8627260923385620e-001</leafValues></_>
    <_>
      <internalNodes>
        0 -1 7936 3.0502805020660162e-003</internalNodes>
      <leafValues>
        -5.0159113015979528e-004 -8.5543406009674072e-001</leafValues></_>
    <_>
      <internalNodes>
        0 -1 7894 1.1890211608260870e-003</internalNodes>
      <leafValues>
        -1.3101124750392046e-005 8.7325716018676758e-001</leafValues></_>
    <_>
      <internalNodes>
        0 -1 9322 1.8911499064415693e-003</internalNodes>
      <leafValues>
        1.4636106789112091e-004 -8.9966666698455811e-001</leafValues></_>
    <_>
      <internalNodes>
        0 -1 9322 1.2770111206918955e-003</internalNodes>
      <leafValues>
        3.6874221405014396e-004 8.8730239868164063e-001</leafValues></_>
    <_>
      <internalNodes>
        0 -1 9322 1.8911499064415693e-003</internalNodes>
      <leafValues>
        -3.6874218494631350e-004 -8.7880390882492065e-001</leafValues></_>
    <_>
      <internalNodes>
        0 -1 9322 1.2770111206918955e-003</internalNodes>
      <leafValues>
        3.6874218494631350e-004 8.8548111915588379e-001</leafValues></_>
    <_>
      <internalNodes>
        0 -1 9322 1.8911499064415693e-003</internalNodes>
      <leafValues>
        -3.6874218494631350e-004 -8.8031542301177979e-001</leafValues></_>
    <_>
      <internalNodes>
        0 -1 9322 1.2770111206918955e-003</internalNodes>
      <leafValues>
        1.8434315279591829e-004 8.8311845064163208e-001</leafValues></_></weakClassifiers></stage3>
</opencv_storage>
