<?xml version="1.0"?>
<opencv_storage>
<stage5>
  <maxWeakCount>100</maxWeakCount>
  <stageThreshold>-1.2278942763805389e-001</stageThreshold>
  <weakClassifiers>
    <_>
      <internalNodes>
        0 -1 1724 1.5986058115959167e-001</internalNodes>
      <leafValues>
        -1.1356262117624283e-001 9.2752373218536377e-001</leafValues></_>
    <_>
      <internalNodes>
        0 -1 7952 2.8417158871889114e-002</internalNodes>
      <leafValues>
        1.1535491794347763e-003 6.2741196155548096e-001</leafValues></_>
    <_>
      <internalNodes>
        0 -1 191060 -5.6777969002723694e-003</internalNodes>
      <leafValues>
        1. -1.1250450275838375e-002</leafValues></_>
    <_>
      <internalNodes>
        0 -1 378270 6.1166618252173066e-005</internalNodes>
      <leafValues>
        5.1159605383872986e-002 -6.2171924114227295e-001</leafValues></_>
    <_>
      <internalNodes>
        0 -1 343335 2.1137330681085587e-002</internalNodes>
      <leafValues>
        -4.3030835688114166e-002 8.1177181005477905e-001</leafValues></_>
    <_>
      <internalNodes>
        0 -1 323838 1.2491740286350250e-002</internalNodes>
      <leafValues>
        2.6543814688920975e-002 -6.5978741645812988e-001</leafValues></_>
    <_>
      <internalNodes>
        0 -1 97064 -5.3124217083677649e-004</internalNodes>
      <leafValues>
        8.9491629600524902e-001 -2.5292525067925453e-002</leafValues></_>
    <_>
      <internalNodes>
        0 -1 52200 1.2213377049192786e-003</internalNodes>
      <leafValues>
        2.7314599603414536e-002 -6.1653912067413330e-001</leafValues></_>
    <_>
      <internalNodes>
        0 -1 987 3.9769176393747330e-002</internalNodes>
      <leafValues>
        -2.8684051707386971e-002 7.5706422328948975e-001</leafValues></_>
    <_>
      <internalNodes>
        0 -1 25696 -1.0832948610186577e-003</internalNodes>
      <leafValues>
        -6.9038426876068115e-001 1.7386419698596001e-002</leafValues></_>
    <_>
      <internalNodes>
        0 -1 219609 3.7633210420608521e-002</internalNodes>
      <leafValues>
        -1.6882637515664101e-002 8.1313812732696533e-001</leafValues></_>
    <_>
      <internalNodes>
        0 -1 37711 -3.1160768121480942e-003</internalNodes>
      <leafValues>
        7.1816098690032959e-001 -1.9237671047449112e-002</leafValues></_>
    <_>
      <internalNodes>
        0 -1 301377 1.1323776561766863e-003</internalNodes>
      <leafValues>
        1.7322635278105736e-002 -6.9691979885101318e-001</leafValues></_>
    <_>
      <internalNodes>
        0 -1 272781 -2.5079408660531044e-003</internalNodes>
      <leafValues>
        6.9912391901016235e-001 -1.2389779090881348e-002</leafValues></_>
    <_>
      <internalNodes>
        0 -1 32313 -1.7406002152711153e-003</internalNodes>
      <leafValues>
        -8.4230262041091919e-001 9.9399015307426453e-003</leafValues></_>
    <_>
      <internalNodes>
        0 -1 130532 1.0055677592754364e-001</internalNodes>
      <leafValues>
        -3.6472065839916468e-003 1.</leafValues></_>
    <_>
      <internalNodes>
        0 -1 2134 -1.0302979499101639e-002</internalNodes>
      <leafValues>
        9.1978293657302856e-001 -8.5489461198449135e-003</leafValues></_>
    <_>
      <internalNodes>
        0 -1 394223 7.6270308345556259e-003</internalNodes>
      <leafValues>
        8.0204522237181664e-003 -9.6779620647430420e-001</leafValues></_>
    <_>
      <internalNodes>
        0 -1 24645 -3.0051479116082191e-003</internalNodes>
      <leafValues>
        9.0998679399490356e-001 -4.8491633497178555e-003</leafValues></_>
    <_>
      <internalNodes>
        0 -1 51832 9.6396617591381073e-003</internalNodes>
      <leafValues>
        1.5195772983133793e-002 -4.7674247622489929e-001</leafValues></_>
    <_>
      <internalNodes>
        0 -1 270143 1.0534825921058655e-001</internalNodes>
      <leafValues>
        -6.7401756532490253e-003 6.1361145973205566e-001</leafValues></_>
    <_>
      <internalNodes>
        0 -1 122075 1.4955953694880009e-002</internalNodes>
      <leafValues>
        5.3211497142910957e-003 -6.1409562826156616e-001</leafValues></_>
    <_>
      <internalNodes>
        0 -1 5857 1.5497900545597076e-002</internalNodes>
      <leafValues>
        -1.9931958522647619e-003 7.5492227077484131e-001</leafValues></_>
    <_>
      <internalNodes>
        0 -1 222069 -6.0237152501940727e-004</internalNodes>
      <leafValues>
        -9.4809627532958984e-001 3.2075654598884284e-004</leafValues></_>
    <_>
      <internalNodes>
        0 -1 240718 2.0060385577380657e-003</internalNodes>
      <leafValues>
        -5.7363213272765279e-004 8.5663557052612305e-001</leafValues></_>
    <_>
      <internalNodes>
        0 -1 1836 6.6576814278960228e-003</internalNodes>
      <leafValues>
        3.3299545757472515e-003 -9.0469574928283691e-001</leafValues></_>
    <_>
      <internalNodes>
        0 -1 416 7.0687737315893173e-003</internalNodes>
      <leafValues>
        -4.0557077154517174e-003 7.6023894548416138e-001</leafValues></_>
    <_>
      <internalNodes>
        0 -1 316446 -1.0335823390050791e-005</internalNodes>
      <leafValues>
        -8.2020449638366699e-001 2.9678537975996733e-003</leafValues></_>
    <_>
      <internalNodes>
        0 -1 242956 -1.4981183921918273e-003</internalNodes>
      <leafValues>
        8.4905058145523071e-001 3.7258371594361961e-004</leafValues></_>
    <_>
      <internalNodes>
        0 -1 186677 4.8241369426250458e-002</internalNodes>
      <leafValues>
        1.1967847058258485e-005 -9.2727887630462646e-001</leafValues></_>
    <_>
      <internalNodes>
        0 -1 16911 7.4995132163167000e-003</internalNodes>
      <leafValues>
        -3.4957248717546463e-003 8.2917493581771851e-001</leafValues></_>
    <_>
      <internalNodes>
        0 -1 222428 2.5325249880552292e-003</internalNodes>
      <leafValues>
        2.1065331529825926e-003 -9.4734948873519897e-001</leafValues></_>
    <_>
      <internalNodes>
        0 -1 205044 2.2287340834736824e-003</internalNodes>
      <leafValues>
        -1.4492602786049247e-003 8.8546341657638550e-001</leafValues></_>
    <_>
      <internalNodes>
        0 -1 6318 3.5550040192902088e-003</internalNodes>
      <leafValues>
        2.7224310906603932e-004 -9.6075212955474854e-001</leafValues></_>
    <_>
      <internalNodes>
        0 -1 1574 2.0972171332687140e-003</internalNodes>
      <leafValues>
        -5.1769874989986420e-003 8.6800861358642578e-001</leafValues></_>
    <_>
      <internalNodes>
        0 -1 9118 8.0019487068057060e-003</internalNodes>
      <leafValues>
        7.7320821583271027e-004 -1.</leafValues></_>
    <_>
      <internalNodes>
        0 -1 4809 2.9863953590393066e-002</internalNodes>
      <leafValues>
        1.2826048769056797e-003 9.5748871564865112e-001</leafValues></_>
    <_>
      <internalNodes>
        0 -1 81932 2.1964911138638854e-004</internalNodes>
      <leafValues>
        5.0110465963371098e-005 -1.</leafValues></_>
    <_>
      <internalNodes>
        0 -1 1674 2.0972171332687140e-003</internalNodes>
      <leafValues>
        -1.9389785593375564e-003 9.6442359685897827e-001</leafValues></_>
    <_>
      <internalNodes>
        0 -1 1190 1.3182429829612374e-003</internalNodes>
      <leafValues>
        -1.6699115803930908e-004 -9.4979226589202881e-001</leafValues></_>
    <_>
      <internalNodes>
        0 -1 163644 2.0972171332687140e-003</internalNodes>
      <leafValues>
        4.9360742559656501e-004 9.5985090732574463e-001</leafValues></_>
    <_>
      <internalNodes>
        0 -1 13274 8.4306821227073669e-003</internalNodes>
      <leafValues>
        -1.9371444068383425e-004 -1.</leafValues></_>
    <_>
      <internalNodes>
        0 -1 1699 4.1318435221910477e-002</internalNodes>
      <leafValues>
        -1.3290422793943435e-004 9.7115886211395264e-001</leafValues></_>
    <_>
      <internalNodes>
        0 -1 763 2.5578991044312716e-003</internalNodes>
      <leafValues>
        -4.9378088442608714e-004 -1.</leafValues></_>
    <_>
      <internalNodes>
        0 -1 863 1.7794464947655797e-003</internalNodes>
      <leafValues>
        2.3647786292713135e-005 9.7573989629745483e-001</leafValues></_>
    <_>
      <internalNodes>
        0 -1 763 2.5578991044312716e-003</internalNodes>
      <leafValues>
        3.0314436298795044e-004 -1.</leafValues></_>
    <_>
      <internalNodes>
        0 -1 763 1.4743985375389457e-003</internalNodes>
      <leafValues>
        -3.0314436298795044e-004 9.7702068090438843e-001</leafValues></_>
    <_>
      <internalNodes>
        0 -1 1173 1.3182429829612374e-003</internalNodes>
      <leafValues>
        -1.8214239389635623e-004 -1.</leafValues></_>
    <_>
      <internalNodes>
        0 -1 3230 6.9907237775623798e-004</internalNodes>
      <leafValues>
        -5.8189092669636011e-004 9.8025751113891602e-001</leafValues></_>
    <_>
      <internalNodes>
        0 -1 763 2.5578991044312716e-003</internalNodes>
      <leafValues>
        7.4038538150489330e-004 -1.</leafValues></_>
    <_>
      <internalNodes>
        0 -1 763 1.4743985375389457e-003</internalNodes>
      <leafValues>
        2.9345226721488871e-005 9.8208296298980713e-001</leafValues></_>
    <_>
      <internalNodes>
        0 -1 763 2.5578991044312716e-003</internalNodes>
      <leafValues>
        2.9744711355306208e-004 -1.</leafValues></_>
    <_>
      <internalNodes>
        0 -1 763 1.4743985375389457e-003</internalNodes>
      <leafValues>
        -2.9744708444923162e-004 9.8287510871887207e-001</leafValues></_>
    <_>
      <internalNodes>
        0 -1 4245 2.4780899286270142e-002</internalNodes>
      <leafValues>
        2.2898984025232494e-004 -1.</leafValues></_>
    <_>
      <internalNodes>
        0 -1 2724 5.6361682713031769e-002</internalNodes>
      <leafValues>
        -6.0734758153557777e-004 9.8328232765197754e-001</leafValues></_>
    <_>
      <internalNodes>
        0 -1 386614 1.2456569820642471e-003</internalNodes>
      <leafValues>
        2.9618354164995253e-004 -1.</leafValues></_>
    <_>
      <internalNodes>
        0 -1 375369 1.0604393668472767e-002</internalNodes>
      <leafValues>
        -2.1431436471175402e-004 9.7246873378753662e-001</leafValues></_>
    <_>
      <internalNodes>
        0 -1 63 2.9994810465723276e-003</internalNodes>
      <leafValues>
        -4.3366785394027829e-004 -1.</leafValues></_>
    <_>
      <internalNodes>
        0 -1 63 3.4654035698622465e-003</internalNodes>
      <leafValues>
        -4.4555918429978192e-004 9.7128814458847046e-001</leafValues></_>
    <_>
      <internalNodes>
        0 -1 63 2.9994810465723276e-003</internalNodes>
      <leafValues>
        4.4555912609212101e-004 -1.</leafValues></_>
    <_>
      <internalNodes>
        0 -1 63 3.4654035698622465e-003</internalNodes>
      <leafValues>
        -4.4555912609212101e-004 9.8642969131469727e-001</leafValues></_>
    <_>
      <internalNodes>
        0 -1 63 2.9994810465723276e-003</internalNodes>
      <leafValues>
        4.4555912609212101e-004 -1.</leafValues></_>
    <_>
      <internalNodes>
        0 -1 63 3.4654035698622465e-003</internalNodes>
      <leafValues>
        -4.4555912609212101e-004 9.8691940307617188e-001</leafValues></_>
    <_>
      <internalNodes>
        0 -1 63 2.9994810465723276e-003</internalNodes>
      <leafValues>
        8.0455670831725001e-004 -1.</leafValues></_>
    <_>
      <internalNodes>
        0 -1 63 3.4654035698622465e-003</internalNodes>
      <leafValues>
        -8.0455653369426727e-004 1.</leafValues></_>
    <_>
      <internalNodes>
        0 -1 63 2.9994810465723276e-003</internalNodes>
      <leafValues>
        8.0455653369426727e-004 -1.</leafValues></_>
    <_>
      <internalNodes>
        0 -1 63 3.0011909548193216e-003</internalNodes>
      <leafValues>
        -8.0455653369426727e-004 1.</leafValues></_>
    <_>
      <internalNodes>
        0 -1 63 2.9994810465723276e-003</internalNodes>
      <leafValues>
        8.0455653369426727e-004 -1.</leafValues></_>
    <_>
      <internalNodes>
        0 -1 63 3.0011909548193216e-003</internalNodes>
      <leafValues>
        -8.0455653369426727e-004 1.</leafValues></_>
    <_>
      <internalNodes>
        0 -1 63 2.9994810465723276e-003</internalNodes>
      <leafValues>
        8.0455653369426727e-004 -1.</leafValues></_>
    <_>
      <internalNodes>
        0 -1 63 3.0011909548193216e-003</internalNodes>
      <leafValues>
        -8.0455653369426727e-004 1.</leafValues></_>
    <_>
      <internalNodes>
        0 -1 63 2.9994810465723276e-003</internalNodes>
      <leafValues>
        8.0455653369426727e-004 -1.</leafValues></_>
    <_>
      <internalNodes>
        0 -1 63 3.0011909548193216e-003</internalNodes>
      <leafValues>
        -8.0455653369426727e-004 1.</leafValues></_>
    <_>
      <internalNodes>
        0 -1 63 2.9994810465723276e-003</internalNodes>
      <leafValues>
        8.0455653369426727e-004 -1.</leafValues></_>
    <_>
      <internalNodes>
        0 -1 63 3.0011909548193216e-003</internalNodes>
      <leafValues>
        -8.0455653369426727e-004 1.</leafValues></_>
    <_>
      <internalNodes>
        0 -1 63 2.9994810465723276e-003</internalNodes>
      <leafValues>
        8.0455653369426727e-004 -1.</leafValues></_>
    <_>
      <internalNodes>
        0 -1 63 3.0011909548193216e-003</internalNodes>
      <leafValues>
        -8.0455653369426727e-004 1.</leafValues></_>
    <_>
      <internalNodes>
        0 -1 63 2.9994810465723276e-003</internalNodes>
      <leafValues>
        8.0455653369426727e-004 -1.</leafValues></_>
    <_>
      <internalNodes>
        0 -1 63 3.0011909548193216e-003</internalNodes>
      <leafValues>
        -8.0455653369426727e-004 1.</leafValues></_>
    <_>
      <internalNodes>
        0 -1 63 2.9994810465723276e-003</internalNodes>
      <leafValues>
        8.0455653369426727e-004 -1.</leafValues></_>
    <_>
      <internalNodes>
        0 -1 63 3.0011909548193216e-003</internalNodes>
      <leafValues>
        -8.0455653369426727e-004 1.</leafValues></_>
    <_>
      <internalNodes>
        0 -1 63 2.9994810465723276e-003</internalNodes>
      <leafValues>
        8.0455653369426727e-004 -1.</leafValues></_>
    <_>
      <internalNodes>
        0 -1 63 3.0011909548193216e-003</internalNodes>
      <leafValues>
        -8.0455653369426727e-004 1.</leafValues></_>
    <_>
      <internalNodes>
        0 -1 63 2.9994810465723276e-003</internalNodes>
      <leafValues>
        8.0455653369426727e-004 -1.</leafValues></_>
    <_>
      <internalNodes>
        0 -1 63 3.0011909548193216e-003</internalNodes>
      <leafValues>
        -8.0455653369426727e-004 1.</leafValues></_>
    <_>
      <internalNodes>
        0 -1 63 2.9994810465723276e-003</internalNodes>
      <leafValues>
        8.0455653369426727e-004 -1.</leafValues></_>
    <_>
      <internalNodes>
        0 -1 63 3.0011909548193216e-003</internalNodes>
      <leafValues>
        -8.0455653369426727e-004 1.</leafValues></_>
    <_>
      <internalNodes>
        0 -1 63 2.9994810465723276e-003</internalNodes>
      <leafValues>
        8.0455653369426727e-004 -1.</leafValues></_>
    <_>
      <internalNodes>
        0 -1 63 3.0011909548193216e-003</internalNodes>
      <leafValues>
        -8.0455653369426727e-004 1.</leafValues></_>
    <_>
      <internalNodes>
        0 -1 63 2.9994810465723276e-003</internalNodes>
      <leafValues>
        8.0455653369426727e-004 -1.</leafValues></_>
    <_>
      <internalNodes>
        0 -1 63 3.0011909548193216e-003</internalNodes>
      <leafValues>
        -8.0455653369426727e-004 1.</leafValues></_>
    <_>
      <internalNodes>
        0 -1 63 2.9994810465723276e-003</internalNodes>
      <leafValues>
        8.0455653369426727e-004 -1.</leafValues></_>
    <_>
      <internalNodes>
        0 -1 63 3.0011909548193216e-003</internalNodes>
      <leafValues>
        -8.0455653369426727e-004 1.</leafValues></_>
    <_>
      <internalNodes>
        0 -1 63 2.9994810465723276e-003</internalNodes>
      <leafValues>
        8.0455653369426727e-004 -1.</leafValues></_>
    <_>
      <internalNodes>
        0 -1 63 3.0011909548193216e-003</internalNodes>
      <leafValues>
        -8.0455653369426727e-004 1.</leafValues></_>
    <_>
      <internalNodes>
        0 -1 63 2.9994810465723276e-003</internalNodes>
      <leafValues>
        8.0455653369426727e-004 -1.</leafValues></_>
    <_>
      <internalNodes>
        0 -1 63 3.0011909548193216e-003</internalNodes>
      <leafValues>
        -8.0455653369426727e-004 1.</leafValues></_>
    <_>
      <internalNodes>
        0 -1 63 2.9994810465723276e-003</internalNodes>
      <leafValues>
        8.0455653369426727e-004 -1.</leafValues></_>
    <_>
      <internalNodes>
        0 -1 63 3.0011909548193216e-003</internalNodes>
      <leafValues>
        -8.0455653369426727e-004 1.</leafValues></_>
    <_>
      <internalNodes>
        0 -1 63 2.9994810465723276e-003</internalNodes>
      <leafValues>
        8.0455653369426727e-004 -1.</leafValues></_></weakClassifiers></stage5>
</opencv_storage>
